digraph Tree {
node [shape=box] ;
0 [label="fat <= 23.92\nmse = 0.377\nsamples = 240\nvalue = 3.255"] ;
1 [label="prot <= 8.855\nmse = 0.175\nsamples = 187\nvalue = 3.084"] ;
0 -> 1 [labeldistance=2.5, labelangle=45, headlabel="True"] ;
2 [label="mse = 0.068\nsamples = 93\nvalue = 3.418"] ;
1 -> 2 ;
3 [label="mse = 0.061\nsamples = 94\nvalue = 2.753"] ;
1 -> 3 ;
4 [label="mse = 0.619\nsamples = 53\nvalue = 3.861"] ;
0 -> 4 [labeldistance=2.5, labelangle=-45, headlabel="False"] ;
}